<?xml version="1.0"?>
<opencv_storage>
<cascade>
  <stageType>BOOST</stageType>
  <featureType>LBP</featureType>
  <height>40</height>
  <width>35</width>
  <stageParams>
    <boostType>GAB</boostType>
    <minHitRate>9.9900001287460327e-01</minHitRate>
    <maxFalseAlarm>5.0000000000000000e-01</maxFalseAlarm>
    <weightTrimRate>9.4999999999999996e-01</weightTrimRate>
    <maxDepth>1</maxDepth>
    <maxWeakCount>100</maxWeakCount></stageParams>
  <featureParams>
    <maxCatCount>256</maxCatCount>
    <featSize>1</featSize></featureParams>
  <stageNum>20</stageNum>
  <stages>
    <!-- stage 0 -->
    <_>
      <maxWeakCount>14</maxWeakCount>
      <stageThreshold>-1.7649196386337280e+00</stageThreshold>
      <weakClassifiers>
        <_>
          <internalNodes>
            0 -1 174 -178784054 -204271549 -805179137 319158655
            -324033825 -264191803 1145098719 1364587483</internalNodes>
          <leafValues>
            -5.4978495836257935e-01 4.5704564452171326e-01</leafValues></_>
        <_>
          <internalNodes>
            0 -1 314 -243930573 -256533455 -773458441 -250514249
            -520504069 -660052295 -257574419 -793665289</internalNodes>
          <leafValues>
            -3.4861838817596436e-01 4.4282665848731995e-01</leafValues></_>
        <_>
          <internalNodes>
            0 -1 26 -361836854 -928197600 -267960292 -1124022720
            155935802 -1898483666 1666929947 1797477939</internalNodes>
          <leafValues>
            -4.1631162166595459e-01 3.1425073742866516e-01</leafValues></_>
        <_>
          <internalNodes>
            0 -1 726 -893848272 -2035906048 -335230944 -1298496268
            -1876213692 3153939 -2069114652 -994856720</internalNodes>
          <leafValues>
            -4.3654447793960571e-01 2.9271820187568665e-01</leafValues></_>
        <_>
          <internalNodes>
            0 -1 626 -2046603109 -1442577182 -1072390302 -546277358
            69224668 -1464815487 539015608 -1129261440</internalNodes>
          <leafValues>
            -3.3314895629882812e-01 3.4451824426651001e-01</leafValues></_>
        <_>
          <internalNodes>
            0 -1 381 1176750620 -780668409 1460196342 -44985718 94377471
            137546242 86045438 -1056836841</internalNodes>
          <leafValues>
            -3.7537610530853271e-01 2.7458626031875610e-01</leafValues></_>
        <_>
          <internalNodes>
            0 -1 702 -620504591 -2128428544 -937258990 -2046630784
            1615553016 -1610579812 271443198 -1936722726</internalNodes>
          <leafValues>
            -3.3188140392303467e-01 3.2775488495826721e-01</leafValues></_>
        <_>
          <internalNodes>
            0 -1 394 -56750064 -141274754 -790883204 2109552935
            -795233123 -1195603704 -265536292 -1474764737</internalNodes>
          <leafValues>
            -3.4203144907951355e-01 2.8804826736450195e-01</leafValues></_>
        <_>
          <internalNodes>
            0 -1 608 -168822592 25927848 -1790910268 95798347 403268048
            151061028 1489565056 1502575502</internalNodes>
          <leafValues>
            -3.4219530224800110e-01 2.5610294938087463e-01</leafValues></_>
        <_>
          <internalNodes>
            0 -1 492 -293623902 281995558 -1360305504 -1166897246
            -1996831224 -536380144 -63070556 -799283296</internalNodes>
          <leafValues>
            -2.8758674860000610e-01 3.0952781438827515e-01</leafValues></_>
        <_>
          <internalNodes>
            0 -1 105 -1541233200 -1761605696 -1516780809 2145773652
            248623103 -1885191748 249898971 -1884073615</internalNodes>
          <leafValues>
            -3.1474488973617554e-01 2.9590979218482971e-01</leafValues></_>
        <_>
          <internalNodes>
            0 -1 60 -626274616 -947491808 -1473169742 -754794240
            39318536 -930064928 -1878670362 -599530337</internalNodes>
          <leafValues>
            -2.6759055256843567e-01 3.5277867317199707e-01</leafValues></_>
        <_>
          <internalNodes>
            0 -1 630 -1366636528 -2069305152 -825753520 969561669
            -1205883495 -1389764286 544547516 -2144273801</internalNodes>
          <leafValues>
            -3.8450637459754944e-01 2.3640137910842896e-01</leafValues></_>
        <_>
          <internalNodes>
            0 -1 266 -798192086 -791575774 -1875815961 307319277
            -1063658508 1415759862 -1713800715 1091750768</internalNodes>
          <leafValues>
            -5.5155372619628906e-01 1.6465179622173309e-01</leafValues></_></weakClassifiers></_>
    <!-- stage 1 -->
    <_>
      <maxWeakCount>21</maxWeakCount>
      <stageThreshold>-1.5577217340469360e+00</stageThreshold>
      <weakClassifiers>
        <_>
          <internalNodes>
            0 -1 223 -201328085 -215531865 1360253943 -774377121
            -381816577 -595376739 -526385153 1096283135</internalNodes>
          <leafValues>
            -4.0724816918373108e-01 3.8737097382545471e-01</leafValues></_>
        <_>
          <internalNodes>
            0 -1 237 -1020023855 -143263856 -850002443 -249445920
            -2003589125 -1147455493 -581064705 -12343999</internalNodes>
          <leafValues>
            -2.9573699831962585e-01 3.5707947611808777e-01</leafValues></_>
        <_>
          <internalNodes>
            0 -1 6 -936456562 -2012950368 -901497797 2080895584 77842571
            -1204347766 428036835 1966306099</internalNodes>
          <leafValues>
            -3.5635507106781006e-01 2.7198594808578491e-01</leafValues></_>
        <_>
          <internalNodes>
            0 -1 725 -844589568 -1570075840 -291745614 -1340994560
            -515259836 67125248 -2052865884 -993275688</internalNodes>
          <leafValues>
            -3.5320717096328735e-01 2.4560379981994629e-01</leafValues></_>
        <_>
          <internalNodes>
            0 -1 142 -2138955776 -720569 -1879035756 -705203315
            1353864938 -1464200934 817994747 1140881441</internalNodes>
          <leafValues>
            -4.3529686331748962e-01 2.2084487974643707e-01</leafValues></_>
        <_>
          <internalNodes>
            0 -1 403 1513526234 1527924590 1079001115 1463915586 8177663
            -2004557792 -582025985 -917384080</internalNodes>
          <leafValues>
            -3.8686543703079224e-01 2.1316900849342346e-01</leafValues></_>
        <_>
          <internalNodes>
            0 -1 599 -582036990 1562087974 -1051701048 8511999
            1343672930 -1922415630 1115748074 174813327</internalNodes>
          <leafValues>
            -3.3153447508811951e-01 2.6974913477897644e-01</leafValues></_>
        <_>
          <internalNodes>
            0 -1 670 -16515695 -2096975198 -533283515 -1987724710
            1667482096 -1207282584 1429558394 -301206866</internalNodes>
          <leafValues>
            -2.6876300573348999e-01 3.1274041533470154e-01</leafValues></_>
        <_>
          <internalNodes>
            0 -1 629 -1413520991 175432114 -1727604562 -1145536304
            -2017011492 -1146390525 -1582779480 -1988063132</internalNodes>
          <leafValues>
            -3.3500567078590393e-01 2.5185430049896240e-01</leafValues></_>
        <_>
          <internalNodes>
            0 -1 414 -353661750 40650636 -1159307728 -1301089040
            1474274304 1685462870 -989923936 -676083985</internalNodes>
          <leafValues>
            -2.5525775551795959e-01 3.0254736542701721e-01</leafValues></_>
        <_>
          <internalNodes>
            0 -1 92 2145343998 -15857778 -1324874952 1942623756
            214573531 506471300 3023070 1037837194</internalNodes>
          <leafValues>
            -3.2608181238174438e-01 2.3720367252826691e-01</leafValues></_>
        <_>
          <internalNodes>
            0 -1 674 -1123382240 228089096 -728230609 -1204930220
            682631874 680134952 1789159596 -1997906898</internalNodes>
          <leafValues>
            -3.5832768678665161e-01 2.1944588422775269e-01</leafValues></_>
        <_>
          <internalNodes>
            0 -1 397 -594301671 2071668743 -1297273345 1102276639
            -918685447 -71299709 -420103446 -1999377953</internalNodes>
          <leafValues>
            -2.2265495359897614e-01 3.3759370446205139e-01</leafValues></_>
        <_>
          <internalNodes>
            0 -1 319 -1276120700 2100425278 927076419 1360287962
            52921734 -938366966 -618314286 -1655216830</internalNodes>
          <leafValues>
            -2.8641471266746521e-01 2.5358822941780090e-01</leafValues></_>
        <_>
          <internalNodes>
            0 -1 733 -245763085 1103753256 -253267562 -781070090
            2025676499 -890474886 1446503605 -1045178681</internalNodes>
          <leafValues>
            -2.3746249079704285e-01 2.9999727010726929e-01</leafValues></_>
        <_>
          <internalNodes>
            0 -1 567 -185860092 490850087 -1131516684 2118334329
            -455544274 -1740753764 1619652796 673766031</internalNodes>
          <leafValues>
            -3.7583619356155396e-01 1.9101886451244354e-01</leafValues></_>
        <_>
          <internalNodes>
            0 -1 585 -1096633167 -117896125 658120797 -580809545
            -2097430790 -654926286 -1440533121 -1994264261</internalNodes>
          <leafValues>
            -2.4064528942108154e-01 2.9684153199195862e-01</leafValues></_>
        <_>
          <internalNodes>
            0 -1 759 -536874854 -1401954264 -626362654 -771076374
            -827981814 -2046405050 1351819466 -713562549</internalNodes>
          <leafValues>
            -2.4187347292900085e-01 3.0234733223915100e-01</leafValues></_>
        <_>
          <internalNodes>
            0 -1 64 -1033637921 16210359 -635995968 340911616 -86387968
            184795929 -820121056 -614991221</internalNodes>
          <leafValues>
            -2.7959209680557251e-01 2.4831591546535492e-01</leafValues></_>
        <_>
          <internalNodes>
            0 -1 594 780276539 -1597898488 -2079274761 1429246200
            -1719530416 -432979221 39859144 -2006974336</internalNodes>
          <leafValues>
            -3.5635116696357727e-01 2.0517480373382568e-01</leafValues></_>
        <_>
          <internalNodes>
            0 -1 13 -2011134848 -532643536 -937346441 -1249830555
            327216047 -1078902363 455427486 185682641</internalNodes>
          <leafValues>
            -3.2759150862693787e-01 2.1914267539978027e-01</leafValues></_></weakClassifiers></_>
    <!-- stage 2 -->
    <_>
      <maxWeakCount>28</maxWeakCount>
      <stageThreshold>-1.5406409502029419e+00</stageThreshold>
      <weakClassifiers>
        <_>
          <internalNodes>
            0 -1 269 -18961105 -74211077 -1008994889 2071952091
            -588138241 349293043 -107225253 1896346711</internalNodes>
          <leafValues>
            -4.2862343788146973e-01 2.9626709222793579e-01</leafValues></_>
        <_>
          <internalNodes>
            0 -1 395 -722672587 1501536607 -1941504577 1460599565
            -796005457 -7966469 -1059028821 -939214530</internalNodes>
          <leafValues>
            -3.2734921574592590e-01 2.5722241401672363e-01</leafValues></_>
        <_>
          <internalNodes>
            0 -1 785 -4468992 755754563 -1492927179 156715711
            -1521579776 -84183922 1208606376 205509355</internalNodes>
          <leafValues>
            -3.0908617377281189e-01 2.5719636678695679e-01</leafValues></_>
        <_>
          <internalNodes>
            0 -1 8 -1034958646 107007624 -805568573 -493757566 801881691
            -136843440 1649796883 1800666963</internalNodes>
          <leafValues>
            -2.6452210545539856e-01 2.9317960143089294e-01</leafValues></_>
        <_>
          <internalNodes>
            0 -1 194 1646439271 1060581923 354939249 -550022558
            -2117869059 1018869085 -298976284 -149846460</internalNodes>
          <leafValues>
            -3.3212810754776001e-01 1.9279006123542786e-01</leafValues></_>
        <_>
          <internalNodes>
            0 -1 651 -1463776238 346739112 -1465381836 -1329561364
            649068785 -1462210004 672664756 -1059003200</internalNodes>
          <leafValues>
            -4.1005542874336243e-01 1.2429574877023697e-01</leafValues></_>
        <_>
          <internalNodes>
            0 -1 74 -143236754 1899107158 402672664 407913536 1184643594
            608839966 849377535 2121689727</internalNodes>
          <leafValues>
            -2.9246160387992859e-01 2.3369535803794861e-01</leafValues></_>
        <_>
          <internalNodes>
            0 -1 504 35061800 -626847347 67207329 -751859147 405641362
            -1879016413 -1685402481 -1072451083</internalNodes>
          <leafValues>
            -2.8318133950233459e-01 2.3395758867263794e-01</leafValues></_>
        <_>
          <internalNodes>
            0 -1 729 -501157221 153250468 -1070296564 -1044725132
            1383472574 -995433880 1224590846 -847255890</internalNodes>
          <leafValues>
            -2.4909120798110962e-01 2.5679403543472290e-01</leafValues></_>
        <_>
          <internalNodes>
            0 -1 467 -826657788 -622682028 -1409019527 -763996528
            -1429714400 -1437809855 -2036027244 -1073692640</internalNodes>
          <leafValues>
            -3.6553767323493958e-01 1.6150093078613281e-01</leafValues></_>
        <_>
          <internalNodes>
            0 -1 140 14155778 1896543728 1578108145 2107104757
            -1553222998 -1370412392 -509908005 7623491</internalNodes>
          <leafValues>
            -3.0284976959228516e-01 2.1669939160346985e-01</leafValues></_>
        <_>
          <internalNodes>
            0 -1 387 -1141182770 298223782 67151472 870824648
            -1998864152 469819560 136581956 1004915149</internalNodes>
          <leafValues>
            -3.2900470495223999e-01 1.7261219024658203e-01</leafValues></_>
        <_>
          <internalNodes>
            0 -1 214 -235894875 -1327193564 1093254005 -459156843
            -1732252205 -599965637 -903622737 1102305204</internalNodes>
          <leafValues>
            -2.9070162773132324e-01 2.1981735527515411e-01</leafValues></_>
        <_>
          <internalNodes>
            0 -1 419 125280085 1563268958 1427338238 1073625006
            1474529276 -1147403102 23360542 -850702082</internalNodes>
          <leafValues>
            -2.1416287124156952e-01 2.8794929385185242e-01</leafValues></_>
        <_>
          <internalNodes>
            0 -1 539 -658788320 1294365438 1628590098 -950472365
            516668384 139117542 310630620 -1606354102</internalNodes>
          <leafValues>
            -3.5555285215377808e-01 1.7663662135601044e-01</leafValues></_>
        <_>
          <internalNodes>
            0 -1 587 -1918640891 -2134429485 -2110616124 -1164029579
            546186245 -829408479 -1078135840 -114657372</internalNodes>
          <leafValues>
            -3.0357646942138672e-01 2.0588868856430054e-01</leafValues></_>
        <_>
          <internalNodes>
            0 -1 669 -406598517 -475858398 -1359694496 -1803671960
            1289971718 1646722598 -866311984 -455084405</internalNodes>
          <leafValues>
            -2.3065321147441864e-01 2.7336964011192322e-01</leafValues></_>
        <_>
          <internalNodes>
            0 -1 493 1513071159 1484976219 142607128 963747194
            1347658688 509100549 100924828 -44735376</internalNodes>
          <leafValues>
            -2.8395187854766846e-01 2.0636281371116638e-01</leafValues></_>
        <_>
          <internalNodes>
            0 -1 67 -88880408 1099092074 -905173886 -767876090
            1090896930 170148723 -914008878 -683412065</internalNodes>
          <leafValues>
            -2.5062942504882812e-01 2.3927752673625946e-01</leafValues></_>
        <_>
          <internalNodes>
            0 -1 32 -591335176 -1084927582 -723719286 1347174060
            -607256850 324249600 1398023622 320549258</internalNodes>
          <leafValues>
            -3.6218369007110596e-01 1.7134152352809906e-01</leafValues></_>
        <_>
          <internalNodes>
            0 -1 454 -1245963651 -1193789095 1904236605 1041896989
            -1312517712 -577896155 -1475862884 -63538668</internalNodes>
          <leafValues>
            -3.0658188462257385e-01 1.9403415918350220e-01</leafValues></_>
        <_>
          <internalNodes>
            0 -1 263 -878714149 -1679841169 246626536 1467481829
            1702859608 250479180 -1827086456 -806895869</internalNodes>
          <leafValues>
            -2.0709805190563202e-01 3.0589720606803894e-01</leafValues></_>
        <_>
          <internalNodes>
            0 -1 461 -456304830 -1064631065 -1056190216 862939186
            1539965240 195790850 -1248608513 -1316882026</internalNodes>
          <leafValues>
            -2.5960597395896912e-01 2.3348170518875122e-01</leafValues></_>
        <_>
          <internalNodes>
            0 -1 598 -123072444 1472412434 -704161703 315847119
            -329219764 -643135426 -527834373 1778397807</internalNodes>
          <leafValues>
            -3.2611700892448425e-01 1.7531137168407440e-01</leafValues></_>
        <_>
          <internalNodes>
            0 -1 506 -43785584 -2126191964 -938303252 -1913749345
            -1000746507 -633267293 1549620571 1378078414</internalNodes>
          <leafValues>
            -3.1699398159980774e-01 1.9441869854927063e-01</leafValues></_>
        <_>
          <internalNodes>
            0 -1 664 -655361782 -250828786 -1006566384 -1605480312
            1629683203 1735053457 -1316818721 1226825886</internalNodes>
          <leafValues>
            -2.6697462797164917e-01 2.2258223593235016e-01</leafValues></_>
        <_>
          <internalNodes>
            0 -1 161 -1728489238 289857992 1522733534 823795536
            -2084517668 432025732 553867484 1802040004</internalNodes>
          <leafValues>
            -2.9332640767097473e-01 1.9853521883487701e-01</leafValues></_>
        <_>
          <internalNodes>
            0 -1 399 1060241692 -1126686179 -1802502565 1295335845
            189573863 -349766994 -938083467 -861928528</internalNodes>
          <leafValues>
            -3.4319773316383362e-01 1.7630851268768311e-01</leafValues></_></weakClassifiers></_>
    <!-- stage 3 -->
    <_>
      <maxWeakCount>33</maxWeakCount>
      <stageThreshold>-1.3292158842086792e+00</stageThreshold>
      <weakClassifiers>
        <_>
          <internalNodes>
            0 -1 243 -2118617 -225185149 -652608521 -236455681
            -1513493249 -108837135 -1445070195 1362605559</internalNodes>
          <leafValues>
            -3.5784402489662170e-01 2.5410163402557373e-01</leafValues></_>
        <_>
          <internalNodes>
            0 -1 435 -145755803 -466881853 -1064480513 1078915183
            -854592265 -1442588714 1745614061 -2134704419</internalNodes>
          <leafValues>
            -3.1284657120704651e-01 2.0250442624092102e-01</leafValues></_>
        <_>
          <internalNodes>
            0 -1 2 -1979519334 -880618486 -2067567689 -149685365
            -897068197 -1882194197 -1773701149 -650952429</internalNodes>
          <leafValues>
            -2.5375288724899292e-01 2.4758790433406830e-01</leafValues></_>
        <_>
          <internalNodes>
            0 -1 756 -13910246 -1149250332 -1372663842 132109519
            -1440948392 -1356124295 1505282480 149644031</internalNodes>
          <leafValues>
            -2.2653357684612274e-01 2.6981055736541748e-01</leafValues></_>
        <_>
          <internalNodes>
            0 -1 406 -73431518 -289401628 -1731024830 -1329933844
            -386955256 101149702 -958765632 -201337377</internalNodes>
          <leafValues>
            -2.3242402076721191e-01 2.2821453213691711e-01</leafValues></_>
        <_>
          <internalNodes>
            0 -1 648 -1617063501 -706935376 208864309 -35694500
            -268841830 248798642 -520852340 -327418194</internalNodes>
          <leafValues>
            -1.9876749813556671e-01 2.8861898183822632e-01</leafValues></_>
        <_>
          <internalNodes>
            0 -1 336 -1196421100 -50829916 -1796206435 1564224109
            -1330315841 -1094172707 1702628319 -670392779</internalNodes>
          <leafValues>
            -2.0128627121448517e-01 2.6357245445251465e-01</leafValues></_>
        <_>
          <internalNodes>
            0 -1 494 511425372 527552607 941108188 465758585 453181145
            437838736 189260248 -572440460</internalNodes>
          <leafValues>
            -3.2290109992027283e-01 1.3672524690628052e-01</leafValues></_>
        <_>
          <internalNodes>
            0 -1 85 -38111506 -18971768 -786931460 537395336 562130984
            1044397082 1728066031 2041602058</internalNodes>
          <leafValues>
            -3.2968804240226746e-01 1.6240015625953674e-01</leafValues></_>
        <_>
          <internalNodes>
            0 -1 641 -2369407 776928340 269636679 1299080310 -20218381
            1445208112 1423178750 779483903</internalNodes>
          <leafValues>
            -2.5731682777404785e-01 1.9710545241832733e-01</leafValues></_>
        <_>
          <internalNodes>
            0 -1 631 -1979524623 37624 -648964975 -1240412016
            -1672783272 -321865565 1519793142 -1974857568</internalNodes>
          <leafValues>
            -2.8287538886070251e-01 1.8330413103103638e-01</leafValues></_>
        <_>
          <internalNodes>
            0 -1 222 -390404233 -1409291145 1402501893 1106506720
            131434194 -1470390141 -1448747440 -286537865</internalNodes>
          <leafValues>
            -2.1495608985424042e-01 2.4132803082466125e-01</leafValues></_>
        <_>
          <internalNodes>
            0 -1 377 -830094408 -1062023471 1967848958 2008053976
            241131519 -1015298016 -980964870 -2126338490</internalNodes>
          <leafValues>
            -2.6288339495658875e-01 2.0581164956092834e-01</leafValues></_>
        <_>
          <internalNodes>
            0 -1 11 -1442664502 -263941308 -41420806 -138969166
            135830251 -557280863 817460843 469196897</internalNodes>
          <leafValues>
            -2.9418978095054626e-01 1.6783320903778076e-01</leafValues></_>
        <_>
          <internalNodes>
            0 -1 671 -338698937 -2113748992 -1073547244 40544768
            1180386273 1113457238 1146059001 580382414</internalNodes>
          <leafValues>
            -3.6620151996612549e-01 1.3682551681995392e-01</leafValues></_>
        <_>
          <internalNodes>
            0 -1 591 126558240 1314968448 -376169924 201983691
            1532911964 355420505 2075851760 -1442647728</internalNodes>
          <leafValues>
            -3.6457160115242004e-01 1.5095071494579315e-01</leafValues></_>
        <_>
          <internalNodes>
            0 -1 390 -286523690 -341504392 1474216651 1881325231
            956153416 -805871789 131041228 -214817534</internalNodes>
          <leafValues>
            -2.1739517152309418e-01 2.3191666603088379e-01</leafValues></_>
        <_>
          <internalNodes>
            0 -1 272 -1548278838 467367341 283824245 -805176895
            -1878883056 -1621507936 -2010802172 -903611133</internalNodes>
          <leafValues>
            -2.9740500450134277e-01 1.7039510607719421e-01</leafValues></_>
        <_>
          <internalNodes>
            0 -1 624 -1290285146 25535116 278580980 -1681661022
            494425557 -1997792098 90440852 454915292</internalNodes>
          <leafValues>
            -3.1301522254943848e-01 1.7385217547416687e-01</leafValues></_>
        <_>
          <internalNodes>
            0 -1 736 -865730540 -1841835433 -1035520513 303782813
            1554526278 -1107221887 -377253409 537555471</internalNodes>
          <leafValues>
            -3.0603033304214478e-01 1.5754014253616333e-01</leafValues></_>
        <_>
          <internalNodes>
            0 -1 627 -600856524 -2069304246 2086290490 -1988475130
            -1439512836 -1399822281 -1587316641 -2146244077</internalNodes>
          <leafValues>
            -2.9830649495124817e-01 1.7750853300094604e-01</leafValues></_>
        <_>
          <internalNodes>
            0 -1 186 1449904779 1768095451 1450789499 1031133690
            504611850 -1721592022 1567676314 -1150039057</internalNodes>
          <leafValues>
            -1.6319136321544647e-01 3.2412073016166687e-01</leafValues></_>
        <_>
          <internalNodes>
            0 -1 371 -993591109 173356139 1120154258 1201905095
            911969432 104990248 238152932 -598354240</internalNodes>
          <leafValues>
            -2.7902463078498840e-01 1.9437304139137268e-01</leafValues></_>
        <_>
          <internalNodes>
            0 -1 274 -1345668328 1607359314 -636232725 57817640
            -1939110976 1643330098 1344844029 -934801392</internalNodes>
          <leafValues>
            -2.9135009646415710e-01 1.7494344711303711e-01</leafValues></_>
        <_>
          <internalNodes>
            0 -1 36 -204597796 -1942753186 -237285344 -630943128
            1378298898 1855589034 822742530 459215379</internalNodes>
          <leafValues>
            -3.1873059272766113e-01 1.7037211358547211e-01</leafValues></_>
        <_>
          <internalNodes>
            0 -1 580 -621108593 -1129632730 -184664080 -118608842
            350985412 72644455 1585390636 -201601793</internalNodes>
          <leafValues>
            -1.8447516858577728e-01 2.8783151507377625e-01</leafValues></_>
        <_>
          <internalNodes>
            0 -1 256 -2145374160 -137354768 2040546807 -1652544624
            -1796125955 -1142416523 607131582 -1475983035</internalNodes>
          <leafValues>
            -2.9033023118972778e-01 1.9027531147003174e-01</leafValues></_>
        <_>
          <internalNodes>
            0 -1 65 -420225653 -819203478 -639193275 1974196000 83456010
            1380416732 1365431394 1427370443</internalNodes>
          <leafValues>
            -1.9758090376853943e-01 2.4744397401809692e-01</leafValues></_>
        <_>
          <internalNodes>
            0 -1 133 1718486726 1058416148 -938471792 813718519
            2071324268 537747825 1727998670 908469310</internalNodes>
          <leafValues>
            -3.1811416149139404e-01 1.5277053415775299e-01</leafValues></_>
        <_>
          <internalNodes>
            0 -1 548 -1618313160 -1050416525 -2129210789 -1041773679
            507444991 -2083815136 1746110143 -2113669801</internalNodes>
          <leafValues>
            -2.2953943908214569e-01 2.2633273899555206e-01</leafValues></_>
        <_>
          <internalNodes>
            0 -1 730 -1394884688 -1476128596 303551096 1927190772
            -1943483584 -2140084223 -678792736 -960863212</internalNodes>
          <leafValues>
            -3.1114372611045837e-01 1.7536768317222595e-01</leafValues></_>
        <_>
          <internalNodes>
            0 -1 747 -1171522057 -1895046800 -1384186784 2067370176
            -1360306023 -1669382952 -1931776535 -843064241</internalNodes>
          <leafValues>
            -1.7314004898071289e-01 3.0029708147048950e-01</leafValues></_>
        <_>
          <internalNodes>
            0 -1 374 -839916505 -804371674 1749022820 -776254869
            1512002437 -2003962651 -1601703708 -439418886</internalNodes>
          <leafValues>
            -2.1723435819149017e-01 2.3269915580749512e-01</leafValues></_></weakClassifiers></_>
    <!-- stage 4 -->
    <_>
      <maxWeakCount>41</maxWeakCount>
      <stageThreshold>-1.4724423885345459e+00</stageThreshold>
      <weakClassifiers>
        <_>
          <internalNodes>
            0 -1 166 -483267663 -1620723643 -1881318951 1433768512
            -2049973329 -1075070015 -1414534193 -146307211</internalNodes>
          <leafValues>
            -2.8076571226119995e-01 2.6818042993545532e-01</leafValues></_>
        <_>
          <internalNodes>
            0 -1 482 -38196679 -1092935627 1954116575 1410855423
            -681755527 -1442027343 -556992261 217381563</internalNodes>
          <leafValues>
            -3.0419713258743286e-01 1.8790969252586365e-01</leafValues></_>
        <_>
          <internalNodes>
            0 -1 817 -1073744592 737889275 -307509312 496967915
            -2028524472 -392337065 -1797136492 263191547</internalNodes>
          <leafValues>
            -2.4035644531250000e-01 2.2488553822040558e-01</leafValues></_>
        <_>
          <internalNodes>
            0 -1 666 -374622590 -878130066 -1502632720 -221847648
            -1104420597 2547314 -1745103744 -671358544</internalNodes>
          <leafValues>
            -1.7454585433006287e-01 2.6361951231956482e-01</leafValues></_>
        <_>
          <internalNodes>
            0 -1 20 -2147438400 -137019419 3183060 -47196162 -310035061
            -2680781 -340989457 17127239</internalNodes>
          <leafValues>
            -3.2721692323684692e-01 1.3276031613349915e-01</leafValues></_>
        <_>
          <internalNodes>
            0 -1 348 -1985228534 -740602654 -537328645 1901158218
            -1879700585 -1049561964 1599459836 -1072671658</internalNodes>
          <leafValues>
            -3.1611749529838562e-01 1.2475758790969849e-01</leafValues></_>
        <_>
          <internalNodes>
            0 -1 533 1072606768 1760024055 428214035 -1241973868
            -1471305816 -296996176 -1997670504 -2147363462</internalNodes>
          <leafValues>
            -2.7300924062728882e-01 1.7078392207622528e-01</leafValues></_>
        <_>
          <internalNodes>
            0 -1 566 -1333371880 -1816562115 -1711423524 995697661
            -455283508 -1629905750 -1361264961 -1944421317</internalNodes>
          <leafValues>
            -2.0289619266986847e-01 2.3821814358234406e-01</leafValues></_>
        <_>
          <internalNodes>
            0 -1 496 -419453253 -1235046872 -285280142 -129314072
            932887556 242007813 -989932060 -262945</internalNodes>
          <leafValues>
            -1.9584038853645325e-01 2.4550276994705200e-01</leafValues></_>
        <_>
          <internalNodes>
            0 -1 751 190245136 21021171 420628112 1030801212 466824891
            249300976 1717389556 133245672</internalNodes>
          <leafValues>
            -3.2154071331024170e-01 1.3899046182632446e-01</leafValues></_>
        <_>
          <internalNodes>
            0 -1 663 -184550485 -13733706 440189665 120378970 1192486835
            1383320721 -703728203 -325189945</internalNodes>
          <leafValues>
            -1.6052210330963135e-01 2.7342548966407776e-01</leafValues></_>
        <_>
          <internalNodes>
            0 -1 24 -934646370 -1066784426 290088313 -66258975 530801263
            1649330795 412178071 927299363</internalNodes>
          <leafValues>
            -3.0014511942863464e-01 1.3665750622749329e-01</leafValues></_>
        <_>
          <internalNodes>
            0 -1 629 213849521 8039316 -588473130 -1077347103
            -1689340130 -1163191437 -7536727 -1718566555</internalNodes>
          <leafValues>
            -2.3987315595149994e-01 1.8811251223087311e-01</leafValues></_>
        <_>
          <internalNodes>
            0 -1 741 2067516035 732615402 -2145980206 3274986 1329311874
            1251385412 -2007638802 -1064569841</internalNodes>
          <leafValues>
            -2.5122210383415222e-01 1.8550089001655579e-01</leafValues></_>
        <_>
          <internalNodes>
            0 -1 560 -1468247887 -75499137 -1736353965 -2178081
            536590420 -556860813 -652426820 -1927127020</internalNodes>
          <leafValues>
            -2.4668817222118378e-01 1.7777507007122040e-01</leafValues></_>
        <_>
          <internalNodes>
            0 -1 295 -1066365432 -1341791584 1005057813 811896967
            -1869823753 11098663 -1542123964 1348777236</internalNodes>
          <leafValues>
            -5.3601467609405518e-01 9.4639196991920471e-02</leafValues></_>
        <_>
          <internalNodes>
            0 -1 59 -1572869414 1291960832 1141003904 1918559434
            -1808251382 1095590472 73510850 -715688145</internalNodes>
          <leafValues>
            -2.4985724687576294e-01 1.8305049836635590e-01</leafValues></_>
        <_>
          <internalNodes>
            0 -1 226 -252217305 -218332291 -1291860011 871759187
            -561127683 -861555266 -17375947 -70258724</internalNodes>
          <leafValues>
            -1.3642211258411407e-01 3.6044776439666748e-01</leafValues></_>
        <_>
          <internalNodes>
            0 -1 498 97745626 -979708430 1950436495 -627383923
            -1725295437 -1449412087 2099334367 1141758151</internalNodes>
          <leafValues>
            -2.4338681995868683e-01 2.0050922036170959e-01</leafValues></_>
        <_>
          <internalNodes>
            0 -1 157 363526908 -70464660 2893824 1475834271 -1052117056
            432014480 1592312524 2136535452</internalNodes>
          <leafValues>
            -2.8296256065368652e-01 1.5469904243946075e-01</leafValues></_>
        <_>
          <internalNodes>
            0 -1 415 -1075639570 -771714941 -1862038878 1569902999
            -1297117552 446697764 -21348424 -940054249</internalNodes>
          <leafValues>
            -2.0572203397750854e-01 2.1828593313694000e-01</leafValues></_>
        <_>
          <internalNodes>
            0 -1 367 -641447708 2074005557 -1848324914 1399844135
            -796461672 1881577495 1613528202 -2012961013</internalNodes>
          <leafValues>
            -2.7198159694671631e-01 1.7433649301528931e-01</leafValues></_>
        <_>
          <internalNodes>
            0 -1 426 1162870493 -266318741 1845271290 -44873190 69308469
            -756733834 -722616838 -547670502</internalNodes>
          <leafValues>
            -1.7795500159263611e-01 2.6887938380241394e-01</leafValues></_>
        <_>
          <internalNodes>
            0 -1 723 -49087813 -2061042960 -1452220880 -105211676
            254219497 1156428915 1247804591 -880149838</internalNodes>
          <leafValues>
            -1.7210672795772552e-01 2.6050052046775818e-01</leafValues></_>
        <_>
          <internalNodes>
            0 -1 210 -1259273840 348862969 -591390380 1830788485
            -240249605 -1694563970 -246186197 790389284</internalNodes>
          <leafValues>
            -2.3520797491073608e-01 1.8628855049610138e-01</leafValues></_>
        <_>
          <internalNodes>
            0 -1 797 -272661829 -1884316918 -285714208 -730483317
            -907307409 -939403028 1704862371 -2029527073</internalNodes>
          <leafValues>
            -1.6568404436111450e-01 2.6828777790069580e-01</leafValues></_>
        <_>
          <internalNodes>
            0 -1 679 -1943495236 -1801910992 453271822 -1950289129
            -1294657579 -3600255 1216616703 -1405860559</internalNodes>
          <leafValues>
            -3.6125192046165466e-01 1.3070449233055115e-01</leafValues></_>
        <_>
          <internalNodes>
            0 -1 530 -29376774 928902677 532627170 -1622147458
            1593304270 712664418 1035664634 -564267178</internalNodes>
          <leafValues>
            -1.7655616998672485e-01 2.5042784214019775e-01</leafValues></_>
        <_>
          <internalNodes>
            0 -1 245 82372363 170347667 292575075 -1643788929 1409400848
            -368164831 1069900624 -864921744</internalNodes>
          <leafValues>
            -3.3718127012252808e-01 1.4257049560546875e-01</leafValues></_>
        <_>
          <internalNodes>
            0 -1 744 -1155533904 -1431902768 535754369 -77891788
            -21045948 -1984962756 -1662192220 -67123233</internalNodes>
          <leafValues>
            -1.6542431712150574e-01 2.7984195947647095e-01</leafValues></_>
        <_>
          <internalNodes>
            0 -1 27 -2138921486 1612845344 -1170182429 -9401606
            1069683442 -5796111 708929353 128405857</internalNodes>
          <leafValues>
            -2.9754689335823059e-01 1.6149349510669708e-01</leafValues></_>
        <_>
          <internalNodes>
            0 -1 128 -638181108 1363848464 2014993572 136074934
            -1783419868 -1170859499 2002803386 874670654</internalNodes>
          <leafValues>
            -3.5647478699684143e-01 1.2549982964992523e-01</leafValues></_>
        <_>
          <internalNodes>
            0 -1 443 1958412880 117058137 276966149 388115348 288526048
            742537237 1941142672 -1532593552</internalNodes>
          <leafValues>
            -3.4071499109268188e-01 1.2931114435195923e-01</leafValues></_>
        <_>
          <internalNodes>
            0 -1 126 -1078307753 1902339636 -1073922692 1564179153
            107652728 -2055358647 7893635 1527449611</internalNodes>
          <leafValues>
            -1.9366729259490967e-01 2.3717117309570312e-01</leafValues></_>
        <_>
          <internalNodes>
            0 -1 626 -1943990243 1795560547 -1789524510 1311006736
            686901465 -112886633 2049241520 -386608448</internalNodes>
          <leafValues>
            -2.9224294424057007e-01 1.5720483660697937e-01</leafValues></_>
        <_>
          <internalNodes>
            0 -1 329 -827471635 -643174313 -1017848438 1043480576
            829981304 -1905621453 -1414351366 -2046755263</internalNodes>
          <leafValues>
            -2.2891122102737427e-01 2.0434424281120300e-01</leafValues></_>
        <_>
          <internalNodes>
            0 -1 650 1564115127 -1698161300 1363149267 -359579465
            948766959 -1993258695 421841306 -1401720034</internalNodes>
          <leafValues>
            -2.1447041630744934e-01 2.1447095274925232e-01</leafValues></_>
        <_>
          <internalNodes>
            0 -1 429 -1993444320 -353441124 -1926637643 -686474562
            975606409 -900005613 -1758346932 -648720315</internalNodes>
          <leafValues>
            -2.2644591331481934e-01 2.1973766386508942e-01</leafValues></_>
        <_>
          <internalNodes>
            0 -1 152 1249892519 164100722 1205520400 1986163156
            344949760 1477083625 1409631626 1465371979</internalNodes>
          <leafValues>
            -2.2199198603630066e-01 2.1967078745365143e-01</leafValues></_>
        <_>
          <internalNodes>
            0 -1 716 -1310542445 575291877 -1864568578 -1687907190
            219228889 151711804 -2139029325 5193823</internalNodes>
          <leafValues>
            -2.5771334767341614e-01 1.8445353209972382e-01</leafValues></_>
        <_>
          <internalNodes>
            0 -1 521 -704510985 -147563583 -1917304358 -227136529
            -18792300 -538214508 -1275017230 -72183632</internalNodes>
          <leafValues>
            -1.9290533661842346e-01 2.4463187158107758e-01</leafValues></_></weakClassifiers></_>
    <!-- stage 5 -->
    <_>
      <maxWeakCount>41</maxWeakCount>
      <stageThreshold>-1.3695422410964966e+00</stageThreshold>
      <weakClassifiers>
        <_>
          <internalNodes>
            0 -1 242 -2096911401 1998060311 -1720717418 -548933161
            -133433383 -363190623 -202968127 -44567215</internalNodes>
          <leafValues>
            -2.6976445317268372e-01 2.2776007652282715e-01</leafValues></_>
        <_>
          <internalNodes>
            0 -1 755 -997321724 492656871 -79192834 49279559 145609996
            2090090568 -335819572 747288239</internalNodes>
          <leafValues>
            -3.3593937754631042e-01 1.5220560133457184e-01</leafValues></_>
        <_>
          <internalNodes>
            0 -1 531 -102784743 -102805438 943496435 1221602190
            1948825499 -2143396814 1816699855 150994139</internalNodes>
          <leafValues>
            -2.4825452268123627e-01 1.8725174665451050e-01</leafValues></_>
        <_>
          <internalNodes>
            0 -1 576 -95435222 -898646356 602930928 -266275464 -12865981
            67513091 -1358989872 -671354114</internalNodes>
          <leafValues>
            -1.6311350464820862e-01 2.7135410904884338e-01</leafValues></_>
        <_>
          <internalNodes>
            0 -1 335 -1333505799 -1195361291 -1197425483 -1793771099
            -1695230535 -67175430 434379931 -1900929735</internalNodes>
          <leafValues>
            -1.8827238678932190e-01 2.4528929591178894e-01</leafValues></_>
        <_>
          <internalNodes>
            0 -1 69 -1007689929 -479227998 1618947109 1350506530
            1802494024 1191475532 1422353543 1396955899</internalNodes>
          <leafValues>
            -2.0800100266933441e-01 2.1487107872962952e-01</leafValues></_>
        <_>
          <internalNodes>
            0 -1 816 -15267328 -1822738302 1700000146 -915189715
            -595086855 -1733312345 -2140294960 72866239</internalNodes>
          <leafValues>
            -2.1007919311523438e-01 2.1086640655994415e-01</leafValues></_>
        <_>
          <internalNodes>
            0 -1 490 236754804 1498214672 154281273 1030815265
            1818535849 1210163524 -1339775794 -938409904</internalNodes>
          <leafValues>
            -3.9839270710945129e-01 8.1657126545906067e-02</leafValues></_>
        <_>
          <internalNodes>
            0 -1 655 606539472 537002510 113362937 781611278 -10851740
            -1365621244 -1951992364 -1936703232</internalNodes>
          <leafValues>
            -3.7184366583824158e-01 1.1506838351488113e-01</leafValues></_>
        <_>
          <internalNodes>
            0 -1 646 -1726008191 70177830 604051221 73689214 1494832454
            210370834 375286596 57038</internalNodes>
          <leafValues>
            -4.5892617106437683e-01 9.4063140451908112e-02</leafValues></_>
        <_>
          <internalNodes>
            0 -1 495 -1308837644 -1859870080 1117432002 -1578386231
            -686483979 -578003273 293632249 1572934574</internalNodes>
          <leafValues>
            -2.5226205587387085e-01 1.7295438051223755e-01</leafValues></_>
        <_>
          <internalNodes>
            0 -1 155 -755511829 445353995 -1055261606 -1528441453
            1245433408 194480769 1100325122 -566111477</internalNodes>
          <leafValues>
            -2.0936772227287292e-01 1.9568705558776855e-01</leafValues></_>
        <_>
          <internalNodes>
            0 -1 135 -1362539554 860115742 -526499554 858001874
            1358829996 -1092591377 340358092 2066544608</internalNodes>
          <leafValues>
            -2.2573255002498627e-01 1.8178097903728485e-01</leafValues></_>
        <_>
          <internalNodes>
            0 -1 618 -2035294153 706772596 -1518721876 -1267714176
            -706231104 1182235926 1926549728 -1546125921</internalNodes>
          <leafValues>
            -1.8254828453063965e-01 2.2971238195896149e-01</leafValues></_>
        <_>
          <internalNodes>
            0 -1 570 -864974334 1466114858 -1660935532 2002190732
            1057242506 470810928 48685502 13674104</internalNodes>
          <leafValues>
            -3.3424174785614014e-01 1.1736615747213364e-01</leafValues></_>
        <_>
          <internalNodes>
            0 -1 557 -1976773520 -504851739 -77079653 -543424935
            -1829833903 -654455845 1518511288 -939523072</internalNodes>
          <leafValues>
            -2.9246813058853149e-01 1.3871918618679047e-01</leafValues></_>
        <_>
          <internalNodes>
            0 -1 317 -474697829 335323801 333842144 1397972991
            -706949432 426520176 -1893679896 -311195534</internalNodes>
          <leafValues>
            -1.7175818979740143e-01 2.4056826531887054e-01</leafValues></_>
        <_>
          <internalNodes>
            0 -1 25 -2063408320 144818373 2142321125 -1414851638
            497346238 776792698 822101777 127357185</internalNodes>
          <leafValues>
            -3.2840135693550110e-01 1.2329407036304474e-01</leafValues></_>
        <_>
          <internalNodes>
            0 -1 91 -933876716 -622425226 340678460 941250618 845680152
            1059332912 1605201215 758165310</internalNodes>
          <leafValues>
            -3.3447089791297913e-01 1.1973217129707336e-01</leafValues></_>
        <_>
          <internalNodes>
            0 -1 745 2132009898 -1022442426 4616416 -1058955094
            1528505600 -2136472789 205767855 1095092870</internalNodes>
          <leafValues>
            -2.9242941737174988e-01 1.4756825566291809e-01</leafValues></_>
        <_>
          <internalNodes>
            0 -1 313 -1870642927 776962102 1010153935 59573517
            -862105951 -879060793 296021733 10518792</internalNodes>
          <leafValues>
            -3.5586440563201904e-01 1.2960717082023621e-01</leafValues></_>
        <_>
          <internalNodes>
            0 -1 492 -562524429 -1060177242 -1595152736 -1293771224
            -1427126965 1158053651 -692067200 -505419029</internalNodes>
          <leafValues>
            -1.8977807462215424e-01 2.3407410085201263e-01</leafValues></_>
        <_>
          <internalNodes>
            0 -1 487 -273943770 1431457794 -1062997394 1340568743
            -1161140274 1895194125 882567896 -1314132001</internalNodes>
          <leafValues>
            -2.0985941588878632e-01 2.1195504069328308e-01</leafValues></_>
        <_>
          <internalNodes>
            0 -1 456 -1147271055 2109211607 -268222427 1063783379
            -1937159384 -1908708818 984504748 -13500159</internalNodes>
          <leafValues>
            -2.4938087165355682e-01 1.9052830338478088e-01</leafValues></_>
        <_>
          <internalNodes>
            0 -1 141 887096872 -1833584570 -1803247535 500644749
            -675812194 1275505392 -1610211462 2550309</internalNodes>
          <leafValues>
            -3.3199560642242432e-01 1.1722685396671295e-01</leafValues></_>
        <_>
          <internalNodes>
            0 -1 661 -2002602101 -346281184 -1359205633 -75657598
            -97015335 -285479435 830035199 -864854591</internalNodes>
          <leafValues>
            -1.7604121565818787e-01 2.4353037774562836e-01</leafValues></_>
        <_>
          <internalNodes>
            0 -1 619 -105528350 -683945924 1596205753 -638632258
            1050919130 203700644 1465818331 -75540609</internalNodes>
          <leafValues>
            -1.1151193827390671e-01 3.6891523003578186e-01</leafValues></_>
        <_>
          <internalNodes>
            0 -1 678 -2126604589 1280078266 -813347431 407646342
            -2020851521 245432451 -633725698 -924397860</internalNodes>
          <leafValues>
            -2.3368477821350098e-01 1.9001396000385284e-01</leafValues></_>
        <_>
          <internalNodes>
            0 -1 796 -911242934 606183502 -765422558 -1306668854
            -754278358 -1999263742 -700041024 476571819</internalNodes>
          <leafValues>
            -2.4672040343284607e-01 1.7383733391761780e-01</leafValues></_>
        <_>
          <internalNodes>
            0 -1 701 -23571533 2066662949 40237655 -754006812 798189302
            235064854 92271855 -1931485294</internalNodes>
          <leafValues>
            -1.9470997154712677e-01 2.2237773239612579e-01</leafValues></_>
        <_>
          <internalNodes>
            0 -1 683 -1162152471 -923128642 -1403126105 -4213115
            1693664653 -285311529 1854679 -1997320199</internalNodes>
          <leafValues>
            -1.7529898881912231e-01 2.3118337988853455e-01</leafValues></_>
        <_>
          <internalNodes>
            0 -1 179 -121907017 -625812857 854225568 1936897013
            514363274 975053313 -415327592 -1056836289</internalNodes>
          <leafValues>
            -1.7033141851425171e-01 2.5554403662681580e-01</leafValues></_>
        <_>
          <internalNodes>
            0 -1 51 -1600418902 544063974 -1068156440 1054036056
            173638468 1192665627 56234817 1314124623</internalNodes>
          <leafValues>
            -2.8520047664642334e-01 1.5347075462341309e-01</leafValues></_>
        <_>
          <internalNodes>
            0 -1 206 -541359361 1743773355 -260620745 -1336952253
            -1047818296 -868225675 -2095979382 -150735843</internalNodes>
          <leafValues>
            -1.5385453402996063e-01 2.8961527347564697e-01</leafValues></_>
        <_>
          <internalNodes>
            0 -1 260 606154640 856895649 -1067697535 621196548
            -2117195007 -1705051896 -1608309808 268732244</internalNodes>
          <leafValues>
            -4.7068387269973755e-01 1.0476338863372803e-01</leafValues></_>
        <_>
          <internalNodes>
            0 -1 339 -171669279 -163212110 -948897654 1916780557
            -217111117 -2046550111 1124641323 428560330</internalNodes>
          <leafValues>
            -2.3090887069702148e-01 1.8310080468654633e-01</leafValues></_>
        <_>
          <internalNodes>
            0 -1 687 -948806511 1787211916 -1390822309 -30769216
            1894892116 -535589703 539664625 -867777948</internalNodes>
          <leafValues>
            -2.4152231216430664e-01 1.8316240608692169e-01</leafValues></_>
        <_>
          <internalNodes>
            0 -1 589 -2139185508 -66609981 469961285 -653196625
            -780354904 -248807088 -2062218403 -1810718178</internalNodes>
          <leafValues>
            -2.1181598305702209e-01 2.0126347243785858e-01</leafValues></_>
        <_>
          <internalNodes>
            0 -1 565 -1803545130 932221214 -99790312 840837639 939571200
            -1162132680 1758474936 671643210</internalNodes>
          <leafValues>
            -3.2022815942764282e-01 1.3221091032028198e-01</leafValues></_>
        <_>
          <internalNodes>
            0 -1 814 -1757685249 -1682655379 1045337047 523752985
            -1363547219 -1721250441 -1084640321 2013118379</internalNodes>
          <leafValues>
            -1.4562599360942841e-01 2.9859304428100586e-01</leafValues></_>
        <_>
          <internalNodes>
            0 -1 711 -734119947 -1494462097 -514297773 -89738642
            1354287072 178389138 -1234616092 -1514966980</internalNodes>
          <leafValues>
            -2.0722772181034088e-01 2.0977196097373962e-01</leafValues></_></weakClassifiers></_>
    <!-- stage 6 -->
    <_>
      <maxWeakCount>45</maxWeakCount>
      <stageThreshold>-1.3173207044601440e+00</stageThreshold>
      <weakClassifiers>
        <_>
          <internalNodes>
            0 -1 195 1785457521 -1960844981 -752225071 -1009278638
            -1962806846 -1165838057 -831129260 -278952875</internalNodes>
          <leafValues>
            -2.5992646813392639e-01 1.7154046893119812e-01</leafValues></_>
        <_>
          <internalNodes>
            0 -1 823 771422096 695402941 873757009 425153431 801413660
            -1385297599 651736772 224131065</internalNodes>
          <leafValues>
            -2.7064403891563416e-01 1.5000484883785248e-01</leafValues></_>
        <_>
          <internalNodes>
            0 -1 444 -1481922113 -1415012870 -759431072 -223182658
            148883972 707015541 -1832526140 -690770690</internalNodes>
          <leafValues>
            -2.0163528621196747e-01 1.9774819910526276e-01</leafValues></_>
        <_>
          <internalNodes>
            0 -1 15 -2136962314 -1840219789 -2136708097 2012342269
            -1165254977 -1141344336 771586521 -838576367</internalNodes>
          <leafValues>
            -1.7235399782657623e-01 2.4077786505222321e-01</leafValues></_>
        <_>
          <internalNodes>
            0 -1 574 -553664195 645566474 1879794758 1146936972
            1178559411 625064177 1648785374 1258284790</internalNodes>
          <leafValues>
            -3.2121413946151733e-01 1.1453400552272797e-01</leafValues></_>
        <_>
          <internalNodes>
            0 -1 705 -214980479 -282153184 -1073778704 -536906248
            -290481007 -1945686145 -255856140 -672140046</internalNodes>
          <leafValues>
            -1.8396794795989990e-01 2.5224423408508301e-01</leafValues></_>
        <_>
          <internalNodes>
            0 -1 14 1074321096 1607784974 750648755 550846600 1376517914
            2124928301 -229648533 1863530059</internalNodes>
          <leafValues>
            -2.1921859681606293e-01 1.9478303194046021e-01</leafValues></_>
        <_>
          <internalNodes>
            0 -1 68 1578100410 256517896 -401209760 1345989172 41666062
            -2076156304 2030880674 1362286463</internalNodes>
          <leafValues>
            -2.7420815825462341e-01 1.2618574500083923e-01</leafValues></_>
        <_>
          <internalNodes>
            0 -1 438 -1691432447 -880376457 -1264844820 826626932
            -848462118 -604901490 229570990 -1069435545</internalNodes>
          <leafValues>
            -1.9909372925758362e-01 2.0220486819744110e-01</leafValues></_>
        <_>
          <internalNodes>
            0 -1 571 -952071606 -427115800 1852763336 -763140760
            -862337718 1157660500 1924653780 -739508225</internalNodes>
          <leafValues>
            -1.6887216269969940e-01 2.3640199005603790e-01</leafValues></_>
        <_>
          <internalNodes>
            0 -1 549 18373081 869597361 1897236700 -1612834307
            1211637212 984416921 207240025 -288221868</internalNodes>
          <leafValues>
            -2.9553115367889404e-01 1.1361228674650192e-01</leafValues></_>
        <_>
          <internalNodes>
            0 -1 122 -763407569 -106473568 -563151579 1934402902
            -1420293829 1516650048 343688400 1460388890</internalNodes>
          <leafValues>
            -1.6945914924144745e-01 2.2170847654342651e-01</leafValues></_>
        <_>
          <internalNodes>
            0 -1 368 583020768 531902658 323236063 1032082384 457722603
            415832586 1386247926 4485200</internalNodes>
          <leafValues>
            -4.1031402349472046e-01 1.1668951809406281e-01</leafValues></_>
        <_>
          <internalNodes>
            0 -1 401 -279971732 2064087664 -248775459 2019444995
            -1738834716 2026844049 -242487099 1091500508</internalNodes>
          <leafValues>
            -2.8771564364433289e-01 1.1929135769605637e-01</leafValues></_>
        <_>
          <internalNodes>
            0 -1 112 -176951933 928775711 -790397198 5710795 -951156511
            -560787063 -2008942623 -984587191</internalNodes>
          <leafValues>
            -1.9135212898254395e-01 1.9652082026004791e-01</leafValues></_>
        <_>
          <internalNodes>
            0 -1 208 -1114276353 1006516886 2058137276 2075816430
            -966659651 -1191163948 151413340 -78974900</internalNodes>
          <leafValues>
            -1.5085460245609283e-01 2.7532333135604858e-01</leafValues></_>
        <_>
          <internalNodes>
            0 -1 613 -552614174 -1801324916 -1739699994 -509232729
            1147102677 1305331167 404770119 1076096973</internalNodes>
          <leafValues>
            -2.5437298417091370e-01 1.4754307270050049e-01</leafValues></_>
        <_>
          <internalNodes>
            0 -1 731 -1573495407 -960074156 482232222 -168906960
            1660595543 -813016936 -507259216 -890342408</internalNodes>
          <leafValues>
            -1.9403582811355591e-01 1.9232471287250519e-01</leafValues></_>
        <_>
          <internalNodes>
            0 -1 610 -103740626 2140062222 279872544 819451820
            1182060847 323381796 623808767 1422109178</internalNodes>
          <leafValues>
            -2.0830197632312775e-01 1.7989003658294678e-01</leafValues></_>
        <_>
          <internalNodes>
            0 -1 116 -605040928 1135566578 662664242 -718557866 37470346
            -421073022 2085144776 -581711921</internalNodes>
          <leafValues>
            -1.6215683519840240e-01 2.3223645985126495e-01</leafValues></_>
        <_>
          <internalNodes>
            0 -1 787 -963749864 769913375 -1699424066 210715195
            918913356 -398654620 -741496950 617542171</internalNodes>
          <leafValues>
            -2.5954604148864746e-01 1.4530302584171295e-01</leafValues></_>
        <_>
          <internalNodes>
            0 -1 312 1074792449 -1976499437 -1939991681 564175144
            227904653 -283994023 -1932664099 25152</internalNodes>
          <leafValues>
            -3.9423269033432007e-01 9.7514934837818146e-02</leafValues></_>
        <_>
          <internalNodes>
            0 -1 292 1437723829 2092155413 -249303474 -1289917875
            -1181839575 -221842364 279767813 -1144719635</internalNodes>
          <leafValues>
            -1.7165859043598175e-01 2.4204656481742859e-01</leafValues></_>
        <_>
          <internalNodes>
            0 -1 844 -2128363873 154482985 -2030948737 976348310
            223857802 16574060 292727726 1530628254</internalNodes>
          <leafValues>
            -1.4351987838745117e-01 2.6334396004676819e-01</leafValues></_>
        <_>
          <internalNodes>
            0 -1 647 -1156087114 182891936 -960493390 -1102680844
            -1583213219 -2140266315 -660516640 -156075904</internalNodes>
          <leafValues>
            -2.5290006399154663e-01 1.4262060821056366e-01</leafValues></_>
        <_>
          <internalNodes>
            0 -1 80 1990918231 -1084292250 -1448465867 1397623927
            166397940 287444080 1438978210 1463497298</internalNodes>
          <leafValues>
            -1.8905141949653625e-01 2.0038114488124847e-01</leafValues></_>
        <_>
          <internalNodes>
            0 -1 500 -25219149 -1644936397 1861891062 -208228564
            -18981040 -328276668 -1662067972 -542380065</internalNodes>
          <leafValues>
            -1.3536009192466736e-01 3.0213829874992371e-01</leafValues></_>
        <_>
          <internalNodes>
            0 -1 547 774515784 1825680592 697011394 -660610843
            2040439890 780733120 -104768461 1076647557</internalNodes>
          <leafValues>
            -3.6602237820625305e-01 1.1947244405746460e-01</leafValues></_>
        <_>
          <internalNodes>
            0 -1 137 -1912462080 -276498348 701450697 -1618783406
            1209015806 -23492296 1362690581 228528437</internalNodes>
          <leafValues>
            -3.1794181466102600e-01 1.1771731823682785e-01</leafValues></_>
        <_>
          <internalNodes>
            0 -1 776 506000273 -1395785152 537107969 -1140322816
            -1413502995 -1396756423 1188689396 -578825088</internalNodes>
          <leafValues>
            -2.0914904773235321e-01 1.8595553934574127e-01</leafValues></_>
        <_>
          <internalNodes>
            0 -1 437 -18430261 1089470286 -1124140414 -796551562
            1713474816 1413381393 1404515724 -169873253</internalNodes>
          <leafValues>
            -1.5738372504711151e-01 2.5481814146041870e-01</leafValues></_>
        <_>
          <internalNodes>
            0 -1 612 -221796795 -1340043244 930139675 1676320295 2046943
            -1937583477 1749894335 168439728</internalNodes>
          <leafValues>
            -2.3061819374561310e-01 1.7347458004951477e-01</leafValues></_>
        <_>
          <internalNodes>
            0 -1 591 10725024 -932810364 1468172543 154285791 1541821404
            1027278139 659554261 -1097149452</internalNodes>
          <leafValues>
            -2.3679202795028687e-01 1.6314408183097839e-01</leafValues></_>
        <_>
          <internalNodes>
            0 -1 424 -565442465 1526716954 -1537472357 -1670090466
            1822425152 -1901379239 953166193 -1816967897</internalNodes>
          <leafValues>
            -2.5097876787185669e-01 1.7968736588954926e-01</leafValues></_>
        <_>
          <internalNodes>
            0 -1 423 -2000241288 1373783949 -1586790915 -1225866462
            -1573329085 -1253908493 -759717749 -1072917436</internalNodes>
          <leafValues>
            -2.5531759858131409e-01 1.5370842814445496e-01</leafValues></_>
        <_>
          <internalNodes>
            0 -1 344 -33575685 -115387934 -1324813830 2043016859
            1308574883 -1917786457 2144090314 -1424241205</internalNodes>
          <leafValues>
            -1.2935087084770203e-01 3.2166260480880737e-01</leafValues></_>
        <_>
          <internalNodes>
            0 -1 196 -724246493 975370542 -1525294684 -1564370710
            -658788959 1515340241 -2102978431 89582856</internalNodes>
          <leafValues>
            -3.3709552884101868e-01 1.2426003813743591e-01</leafValues></_>
        <_>
          <internalNodes>
            0 -1 203 -23897389 61587104 1473314504 65025059 -1153704694
            -205531307 1979434698 -1418099941</internalNodes>
          <leafValues>
            -1.6627287864685059e-01 2.5121331214904785e-01</leafValues></_>
        <_>
          <internalNodes>
            0 -1 95 1683777452 -19631601 -633692700 1053832712
            1216950701 -1123167749 89750683 1561358368</internalNodes>
          <leafValues>
            -2.5663107633590698e-01 1.6597446799278259e-01</leafValues></_>
        <_>
          <internalNodes>
            0 -1 54 523745292 -144756708 1258352020 1690419686 27440186
            892264662 110576671 624252745</internalNodes>
          <leafValues>
            -2.9373040795326233e-01 1.3426120579242706e-01</leafValues></_>
        <_>
          <internalNodes>
            0 -1 653 -49113673 -863225839 405342666 -874950438
            1459630267 -1345060557 -973068134 -530061782</internalNodes>
          <leafValues>
            -1.9501554965972900e-01 2.0964638888835907e-01</leafValues></_>
        <_>
          <internalNodes>
            0 -1 205 -574678401 -144294036 2114860152 -227997440
            -1884760954 -853887633 1154975135 -76119545</internalNodes>
          <leafValues>
            -1.4108239114284515e-01 2.8368708491325378e-01</leafValues></_>
        <_>
          <internalNodes>
            0 -1 28 -87760936 1246749230 -650578687 -992656304
            2064263205 -1491998617 1914402131 206534211</internalNodes>
          <leafValues>
            -2.9653057456016541e-01 1.3551868498325348e-01</leafValues></_>
        <_>
          <internalNodes>
            0 -1 452 -241435248 145515168 703391998 -1588878189
            -645484067 -15812365 1528251095 404853919</internalNodes>
          <leafValues>
            -2.6239070296287537e-01 1.5685078501701355e-01</leafValues></_>
        <_>
          <internalNodes>
            0 -1 418 -1529113586 -129134194 371098740 1913714804
            -475211752 539901953 564441280 -1834564408</internalNodes>
          <leafValues>
            -2.4510629475116730e-01 1.6333104670047760e-01</leafValues></_></weakClassifiers></_>
    <!-- stage 7 -->
    <_>
      <maxWeakCount>47</maxWeakCount>
      <stageThreshold>-1.3270162343978882e+00</stageThreshold>
      <weakClassifiers>
        <_>
          <internalNodes>
            0 -1 257 1158784997 -178939241 -1727975009 -717786411
            -1063278195 -1191620418 -796750849 -716995711</internalNodes>
          <leafValues>
            -2.3664383590221405e-01 1.7658402025699615e-01</leafValues></_>
        <_>
          <internalNodes>
            0 -1 109 -1598012382 -746947109 -2108128175 1966281693
            751481268 -901644006 133172665 134368321</internalNodes>
          <leafValues>
            -2.3533701896667480e-01 1.6356882452964783e-01</leafValues></_>
        <_>
          <internalNodes>
            0 -1 667 -589587053 1040650804 805576963 225211606
            1652773242 672536866 1089237374 753916922</internalNodes>
          <leafValues>
            -2.1150548756122589e-01 1.7662383615970612e-01</leafValues></_>
        <_>
          <internalNodes>
            0 -1 477 -257684452 1060906263 -581731360 -1842562277
            1222147790 2024962687 -469717862 2781739</internalNodes>
          <leafValues>
            -2.7880850434303284e-01 1.5442718565464020e-01</leafValues></_>
        <_>
          <internalNodes>
            0 -1 57 -28950890 815455373 -1408056624 1818294572
            1913784862 1069423275 -347781630 2004776895</internalNodes>
          <leafValues>
            -2.9034340381622314e-01 1.0423644632101059e-01</leafValues></_>
        <_>
          <internalNodes>
            0 -1 301 1909805482 -149684290 -1023805515 897187576
            -2043694817 -1066312347 1475260382 -804456876</internalNodes>
          <leafValues>
            -1.9033105671405792e-01 1.9572806358337402e-01</leafValues></_>
        <_>
          <internalNodes>
            0 -1 540 -859857762 1925874912 -1213754736 -1306873576
            742115136 1111794196 602927584 -747907669</internalNodes>
          <leafValues>
            -2.0489542186260223e-01 1.7824316024780273e-01</leafValues></_>
        <_>
          <internalNodes>
            0 -1 5 185377664 -1054804216 -1757346381 2066433626
            -1827895913 -3612618 285577495 -985308927</internalNodes>
          <leafValues>
            -2.6855352520942688e-01 1.5202063322067261e-01</leafValues></_>
        <_>
          <internalNodes>
            0 -1 795 -29362501 589425728 -429869368 -46018355 -287128562
            -1474302246 -54294808 -582091941</internalNodes>
          <leafValues>
            -1.8370637297630310e-01 2.1926203370094299e-01</leafValues></_>
        <_>
          <internalNodes>
            0 -1 347 1259579551 706856311 681643198 1360895263
            -1183867248 483784192 -1325400376 -340658258</internalNodes>
          <leafValues>
            -1.3380725681781769e-01 2.6884725689888000e-01</leafValues></_>
        <_>
          <internalNodes>
            0 -1 389 -257289093 -1511748792 -1440410695 -26411429
            -931508185 -1081603802 391291318 -1703873436</internalNodes>
          <leafValues>
            -2.3122154176235199e-01 1.6086594760417938e-01</leafValues></_>
        <_>
          <internalNodes>
            0 -1 581 784328329 1049675960 1043008713 -577916770
            794411701 -2001304824 524205771 1547034535</internalNodes>
          <leafValues>
            -2.3060058057308197e-01 1.6908909380435944e-01</leafValues></_>
        <_>
          <internalNodes>
            0 -1 602 1336412744 1978353710 51522652 2069719068
            -1153458866 1059711640 1540356826 1219308268</internalNodes>
          <leafValues>
            -2.3643225431442261e-01 1.6426259279251099e-01</leafValues></_>
        <_>
          <internalNodes>
            0 -1 175 -1273773533 713097233 -1333663152 138565248
            -845682301 1834635810 -1952862304 1663518639</internalNodes>
          <leafValues>
            -3.2472181320190430e-01 9.6405573189258575e-02</leafValues></_>
        <_>
          <internalNodes>
            0 -1 97 1727168366 -259118241 -770309537 873348904 831351657
            -130742199 891840703 1029993558</internalNodes>
          <leafValues>
            -2.1921816468238831e-01 1.7308828234672546e-01</leafValues></_>
        <_>
          <internalNodes>
            0 -1 788 -549733832 432890071 1544197591 156959687
            1923019680 -1828052053 -913052272 741865146</internalNodes>
          <leafValues>
            -2.3246017098426819e-01 1.5431123971939087e-01</leafValues></_>
        <_>
          <internalNodes>
            0 -1 410 1003307008 1848310274 138924236 141181030
            2022520167 542008581 1637507684 537154796</internalNodes>
          <leafValues>
            -5.4084122180938721e-01 7.5465895235538483e-02</leafValues></_>
        <_>
          <internalNodes>
            0 -1 291 -977019745 -135030923 1398002927 2077222479
            -1618695237 -10262811 -1308834941 -70259233</internalNodes>
          <leafValues>
            -9.5628641545772552e-02 4.4495216012001038e-01</leafValues></_>
        <_>
          <internalNodes>
            0 -1 326 1896083712 -329349878 982946366 1080709894
            -616621604 130923202 -1383336756 350310</internalNodes>
          <leafValues>
            -4.7445201873779297e-01 8.3181180059909821e-02</leafValues></_>
        <_>
          <internalNodes>
            0 -1 846 524280283 266288664 2122279611 1966326308
            -1543722868 207370342 279284170 1343220987</internalNodes>
          <leafValues>
            -1.6565775871276855e-01 2.3507106304168701e-01</leafValues></_>
        <_>
          <internalNodes>
            0 -1 713 -1768073029 72268454 281467106 -743675600
            -1592031332 990249989 1425828086 -959002437</internalNodes>
          <leafValues>
            -2.0635195076465607e-01 1.8390275537967682e-01</leafValues></_>
        <_>
          <internalNodes>
            0 -1 615 -9196757 62566026 -1426280604 -228952072 261875159
            1919710373 -2017909536 -219415965</internalNodes>
          <leafValues>
            -1.7218558490276337e-01 2.1597790718078613e-01</leafValues></_>
        <_>
          <internalNodes>
            0 -1 369 555745512 864633689 1976845186 2105815253 266140633
            190349960 1269022978 267653184</internalNodes>
          <leafValues>
            -3.8568490743637085e-01 9.3406990170478821e-02</leafValues></_>
        <_>
          <internalNodes>
            0 -1 427 -645518243 1895962959 746587263 -1116276644
            -1326945008 -856081729 -1181562687 -1707411621</internalNodes>
          <leafValues>
            -1.8939056992530823e-01 1.9683480262756348e-01</leafValues></_>
        <_>
          <internalNodes>
            0 -1 185 1550049455 1562633303 1534582851 89280634
            -1475884856 -1414635715 2048369098 -33559686</internalNodes>
          <leafValues>
            -1.1602029949426651e-01 3.1407788395881653e-01</leafValues></_>
        <_>
          <internalNodes>
            0 -1 541 -125838285 301375438 717754454 1035853310
            -1328749382 753993725 -1380364869 -1111757282</internalNodes>
          <leafValues>
            -1.3021078705787659e-01 2.9772990942001343e-01</leafValues></_>
        <_>
          <internalNodes>
            0 -1 696 -42066885 -211815406 2088382641 1345769654
            2141763538 -1903241562 1707013710 -578293054</internalNodes>
          <leafValues>
            -1.5672928094863892e-01 2.4769558012485504e-01</leafValues></_>
        <_>
          <internalNodes>
            0 -1 622 -872838781 -1221347187 -806540235 -571679616
            100699811 -1661677939 1081462759 -1115693712</internalNodes>
          <leafValues>
            -1.4471441507339478e-01 2.5875434279441833e-01</leafValues></_>
        <_>
          <internalNodes>
            0 -1 790 -898839330 2046553297 -135364932 308796895
            -293810611 1878245192 -689964340 -110454769</internalNodes>
          <leafValues>
            -1.6368092596530914e-01 2.3320397734642029e-01</leafValues></_>
        <_>
          <internalNodes>
            0 -1 349 -76840705 -635433229 1274311458 1533640693
            -724062286 447755428 -547362308 2043605876</internalNodes>
          <leafValues>
            -1.8811225891113281e-01 1.9960549473762512e-01</leafValues></_>
        <_>
          <internalNodes>
            0 -1 551 713134088 136620274 135663214 -2003299840
            1359484160 -1759503839 -1067800476 70302516</internalNodes>
          <leafValues>
            -5.1674360036849976e-01 7.0522658526897430e-02</leafValues></_>
        <_>
          <internalNodes>
            0 -1 512 1268046053 2100338938 -748989669 -1122564939
            1296339040 -1920333763 -793070980 -2059757185</internalNodes>
          <leafValues>
            -1.8825787305831909e-01 2.0244835317134857e-01</leafValues></_>
        <_>
          <internalNodes>
            0 -1 78 -923021662 1215030222 1553594880 -2079154030
            269008902 122945593 1935452032 1899483411</internalNodes>
          <leafValues>
            -3.2975691556930542e-01 1.2236069887876511e-01</leafValues></_>
        <_>
          <internalNodes>
            0 -1 738 1337260723 -1615552496 2049989611 1373920780
            1051734666 -852570558 -1024301061 -1689944930</internalNodes>
          <leafValues>
            -1.7241163551807404e-01 2.3351947963237762e-01</leafValues></_>
        <_>
          <internalNodes>
            0 -1 764 524021387 1124787722 1758020242 -645654340
            975792861 134389012 -1826133815 -852288630</internalNodes>
          <leafValues>
            -1.8604180216789246e-01 2.0955003798007965e-01</leafValues></_>
        <_>
          <internalNodes>
            0 -1 207 1069446779 -545884353 -406162875 -1296993393
            -939524384 -779831831 -1801341025 -2296049</internalNodes>
          <leafValues>
            -1.1795158684253693e-01 3.3229112625122070e-01</leafValues></_>
        <_>
          <internalNodes>
            0 -1 212 151118912 -221113387 1942059200 -1210730070
            -1391716728 -1053407056 1162674252 37429898</internalNodes>
          <leafValues>
            -3.1991550326347351e-01 1.2675994634628296e-01</leafValues></_>
        <_>
          <internalNodes>
            0 -1 247 -606121077 1467793405 1932748571 -94574800
            -1117468771 -2039292333 -842614285 -397805608</internalNodes>
          <leafValues>
            -1.4360205829143524e-01 2.8536933660507202e-01</leafValues></_>
        <_>
          <internalNodes>
            0 -1 321 -913197909 1373348441 440472283 1473632517
            -1446059192 720046160 -1061684452 -13529738</internalNodes>
          <leafValues>
            -1.8028697371482849e-01 2.1161396801471710e-01</leafValues></_>
        <_>
          <internalNodes>
            0 -1 686 -1664363063 1139587116 1086838000 1460372005
            1647395583 44703885 1353335973 1104643607</internalNodes>
          <leafValues>
            -2.1731752157211304e-01 1.7811821401119232e-01</leafValues></_>
        <_>
          <internalNodes>
            0 -1 115 -245759679 913542917 202396458 -2081451222
            -1039550832 -2085383686 -2031413279 -1002244516</internalNodes>
          <leafValues>
            -2.4541105329990387e-01 1.5663164854049683e-01</leafValues></_>
        <_>
          <internalNodes>
            0 -1 311 -1599077295 -1131390964 1230411897 -1448412863
            -1700759384 -1078443691 898635498 212998516</internalNodes>
          <leafValues>
            -2.7077293395996094e-01 1.4892266690731049e-01</leafValues></_>
        <_>
          <internalNodes>
            0 -1 662 -2054201749 -890343308 -904871275 1544059030
            -1627096462 -1886265330 1597155689 -1095069200</internalNodes>
          <leafValues>
            -2.1557185053825378e-01 1.8102119863033295e-01</leafValues></_>
        <_>
          <internalNodes>
            0 -1 125 -144228119 1798972856 1807625129 1431377877
            108205375 1299607156 1387316676 1562543098</internalNodes>
          <leafValues>
            -1.9630341231822968e-01 2.0564305782318115e-01</leafValues></_>
        <_>
          <internalNodes>
            0 -1 354 -660165474 1092698203 1617600634 840093108
            -407125680 -14106581 1948471508 -667756582</internalNodes>
          <leafValues>
            -2.1117836236953735e-01 1.8330089747905731e-01</leafValues></_>
        <_>
          <internalNodes>
            0 -1 523 -1345978179 -38002328 2031459800 -141446994
            -318537587 98617619 759500235 151012464</internalNodes>
          <leafValues>
            -2.4085564911365509e-01 1.6840207576751709e-01</leafValues></_>
        <_>
          <internalNodes>
            0 -1 320 -536474624 982943915 269287729 1947058414
            -828628942 522853360 -1574372484 1144320053</internalNodes>
          <leafValues>
            -4.5683303475379944e-01 8.8145844638347626e-02</leafValues></_></weakClassifiers></_>
    <!-- stage 8 -->
    <_>
      <maxWeakCount>48</maxWeakCount>
      <stageThreshold>-1.3195800781250000e+00</stageThreshold>
      <weakClassifiers>
        <_>
          <internalNodes>
            0 -1 366 349983744 -57205412 1565202844 792665389
            -1534442280 -55722903 -1600586754 203094029</internalNodes>
          <leafValues>
            -2.6648408174514771e-01 1.3947084546089172e-01</leafValues></_>
        <_>
          <internalNodes>
            0 -1 373 774769676 389411784 -1826946951 -1550116264
            204338669 -125111804 1498766840 -2146417551</internalNodes>
          <leafValues>
            -3.6348634958267212e-01 1.0307284444570541e-01</leafValues></_>
        <_>
          <internalNodes>
            0 -1 184 -1953854537 -1891497771 1258903904 1440571505
            -2129423616 1171193857 -1692961212 1180430855</internalNodes>
          <leafValues>
            -2.8109717369079590e-01 1.5489356219768524e-01</leafValues></_>
        <_>
          <internalNodes>
            0 -1 629 -1413541455 709769862 -1094674226 1609185495
            -1322362018 -1159779781 2141781998 -1996439316</internalNodes>
          <leafValues>
            -2.2507494688034058e-01 1.5433531999588013e-01</leafValues></_>
        <_>
          <internalNodes>
            0 -1 691 1416512582 1535605619 -122168580 842784271
            -353436850 -117723300 2134563964 671343179</internalNodes>
          <leafValues>
            -2.3220960795879364e-01 1.6232840716838837e-01</leafValues></_>
        <_>
          <internalNodes>
            0 -1 529 -31475137 531799958 741680622 1023622586 -812192313
            532850486 1033763510 -3807522</internalNodes>
          <leafValues>
            -1.6621044278144836e-01 2.2995707392692566e-01</leafValues></_>
        <_>
          <internalNodes>
            0 -1 660 -1359746063 -1561681784 1427135997 -43069764
            -1719131688 -626972257 -1726040067 -937896219</internalNodes>
          <leafValues>
            -1.9051337242126465e-01 1.8898093700408936e-01</leafValues></_>
        <_>
          <internalNodes>
            0 -1 118 -873117402 -537138249 -1595574774 7696977
            -236353977 -1442719807 -1007258167 -388697269</internalNodes>
          <leafValues>
            -1.5968894958496094e-01 2.2371682524681091e-01</leafValues></_>
        <_>
          <internalNodes>
            0 -1 162 1282613097 -740733375 -2091210329 1338179949
            495298011 1468003066 691294031 530405951</internalNodes>
          <leafValues>
            -2.1757082641124725e-01 1.6040842235088348e-01</leafValues></_>
        <_>
          <internalNodes>
            0 -1 520 -727034722 -1046258041 -1363235105 -188844969
            2134835242 -1636839439 -1522245702 -124107868</internalNodes>
          <leafValues>
            -1.6028802096843719e-01 2.2242888808250427e-01</leafValues></_>
        <_>
          <internalNodes>
            0 -1 518 -1709196264 538544132 754161439 -804942823
            464432062 281840520 -1831894265 -2094010950</internalNodes>
          <leafValues>
            -2.0866681635379791e-01 1.7383368313312531e-01</leafValues></_>
        <_>
          <internalNodes>
            0 -1 4 -2010978528 572530914 2001454331 1608379435 217274214
            1509262246 1152073875 214253617</internalNodes>
          <leafValues>
            -3.3242410421371460e-01 9.9470093846321106e-02</leafValues></_>
        <_>
          <internalNodes>
            0 -1 407 19392733 1369659258 1416657947 2131076751
            -1463921409 -636378380 -1407957668 -2130365340</internalNodes>
          <leafValues>
            -2.4297341704368591e-01 1.5177316963672638e-01</leafValues></_>
        <_>
          <internalNodes>
            0 -1 86 1500411742 -16881302 146678408 -130139149 -117508102
            450160076 -1293138954 -615713848</internalNodes>
          <leafValues>
            -1.8520094454288483e-01 2.0043112337589264e-01</leafValues></_>
        <_>
          <internalNodes>
            0 -1 70 -93696466 -369686238 1812097569 1881231174 657477230
            -1690694132 1427202726 -788008737</internalNodes>
          <leafValues>
            -1.8079616129398346e-01 2.0554405450820923e-01</leafValues></_>
        <_>
          <internalNodes>
            0 -1 240 1882573344 249903272 101966709 1678624258
            -863843211 2115660335 -1850105504 539010208</internalNodes>
          <leafValues>
            -4.4462156295776367e-01 8.6027264595031738e-02</leafValues></_>
        <_>
          <internalNodes>
            0 -1 575 -654859755 -1685300299 -289478037 -303059205
            -179087875 -1404485636 1496407359 -920621681</internalNodes>
          <leafValues>
            -1.6516846418380737e-01 2.1559028327465057e-01</leafValues></_>
        <_>
          <internalNodes>
            0 -1 573 -763635738 1068367521 -722553982 -220202012
            -471955825 890175300 -1543901525 -721164298</internalNodes>
          <leafValues>
            -1.8172034621238708e-01 2.0010773837566376e-01</leafValues></_>
        <_>
          <internalNodes>
            0 -1 459 1254511384 -1301087787 -1361322369 -796897190
            847024 -360873842 2132953737 -1073725440</internalNodes>
          <leafValues>
            -2.6874378323554993e-01 1.4888554811477661e-01</leafValues></_>
        <_>
          <internalNodes>
            0 -1 766 452379312 602635488 -1810845296 329597692 231910296
            214016392 349596948 268386845</internalNodes>
          <leafValues>
            -3.0485418438911438e-01 1.0431714355945587e-01</leafValues></_>
        <_>
          <internalNodes>
            0 -1 153 -12596573 -1548233753 2004569840 -2055870401
            2003370632 -1677943108 -832182358 -1098137445</internalNodes>
          <leafValues>
            -1.1068205535411835e-01 3.1135636568069458e-01</leafValues></_>
        <_>
          <internalNodes>
            0 -1 628 -1842170687 -2078846731 758662176 -1984759376
            913222845 -1701183095 544023151 -2147289516</internalNodes>
          <leafValues>
            -2.7829742431640625e-01 1.3002949953079224e-01</leafValues></_>
        <_>
          <internalNodes>
            0 -1 761 1236713203 -878135120 2088659706 1342437479
            926099358 1112810622 1450692554 -846608074</internalNodes>
          <leafValues>
            -1.8169222772121429e-01 1.9959329068660736e-01</leafValues></_>
        <_>
          <internalNodes>
            0 -1 633 836239924 -146782905 -196571973 1910384620
            -594171425 210908437 1440837775 1095837024</internalNodes>
          <leafValues>
            -2.0658747851848602e-01 1.7032776772975922e-01</leafValues></_>
        <_>
          <internalNodes>
            0 -1 216 -82759329 -680098122 1260769385 1466344225
            -1173655175 -353351028 1086373975 1191527783</internalNodes>
          <leafValues>
            -2.0979630947113037e-01 1.7442679405212402e-01</leafValues></_>
        <_>
          <internalNodes>
            0 -1 726 -1212564102 -426883420 -109003308 -90255168
            281731148 84961288 -789724960 -583019029</internalNodes>
          <leafValues>
            -1.9826427102088928e-01 1.8091261386871338e-01</leafValues></_>
        <_>
          <internalNodes>
            0 -1 132 1688612534 -1317664174 -258583460 872680104
            -1106494344 1045873504 -54166785 2116252906</internalNodes>
          <leafValues>
            -2.1583031117916107e-01 1.6916005313396454e-01</leafValues></_>
        <_>
          <internalNodes>
            0 -1 42 -1580555565 186865192 -283159486 2131356770
            2013820747 1146415209 282523010 -821868589</internalNodes>
          <leafValues>
            -2.0106577873229980e-01 1.8049561977386475e-01</leafValues></_>
        <_>
          <internalNodes>
            0 -1 626 -1961863018 -2113638160 1744831922 -1912314222
            1825790064 -1189250975 1751577587 -521082704</internalNodes>
          <leafValues>
            -2.9573255777359009e-01 1.2366969138383865e-01</leafValues></_>
        <_>
          <internalNodes>
            0 -1 455 -214240960 -748969130 65263870 -547165251
            2109189452 -1176663520 78459103 533661950</internalNodes>
          <leafValues>
            -1.5652929246425629e-01 2.5352984666824341e-01</leafValues></_>
        <_>
          <internalNodes>
            0 -1 604 1793773063 1343625762 1086483466 16820679
            1649070603 348721499 1969878861 -1464310698</internalNodes>
          <leafValues>
            -2.7480089664459229e-01 1.3404162228107452e-01</leafValues></_>
        <_>
          <internalNodes>
            0 -1 332 -1006676148 -328426066 840790161 1986406433
            -785990644 -2141668742 -1000766056 17966339</internalNodes>
          <leafValues>
            -2.3687918484210968e-01 1.6123811900615692e-01</leafValues></_>
        <_>
          <internalNodes>
            0 -1 249 981025977 1843477967 1196642355 376912245
            -385556536 -633629957 -98262640 473205053</internalNodes>
          <leafValues>
            -2.4256680905818939e-01 1.4984004199504852e-01</leafValues></_>
        <_>
          <internalNodes>
            0 -1 842 1329992189 -820212592 1387313420 1095784323
            1653527033 -197646995 1259376838 117760731</internalNodes>
          <leafValues>
            -2.3015540838241577e-01 1.6142386198043823e-01</leafValues></_>
        <_>
          <internalNodes>
            0 -1 439 -8456565 1856392930 -1628637016 -1873482645
            -1932028604 1076359013 1291310466 -201596530</internalNodes>
          <leafValues>
            -1.5968486666679382e-01 2.2964790463447571e-01</leafValues></_>
        <_>
          <internalNodes>
            0 -1 298 -314995585 -1612989993 -1977400077 1268889077
            1824050826 534038916 1523322462 -807928618</internalNodes>
          <leafValues>
            -1.4964696764945984e-01 2.5095105171203613e-01</leafValues></_>
        <_>
          <internalNodes>
            0 -1 754 -398047232 -1851336035 -645481674 349918462
            1648489557 2041659530 -1092011202 -1467448553</internalNodes>
          <leafValues>
            -2.5391420722007751e-01 1.5429496765136719e-01</leafValues></_>
        <_>
          <internalNodes>
            0 -1 466 -2046266800 -225155784 675727454 -690686909
            597559328 -247775126 -571807532 -94371708</internalNodes>
          <leafValues>
            -2.6307085156440735e-01 1.4392252266407013e-01</leafValues></_>
        <_>
          <internalNodes>
            0 -1 139 -257281022 -95034147 -681908783 -1156785981
            -627993094 -1021720544 1099689307 1246456579</internalNodes>
          <leafValues>
            -1.8116715550422668e-01 2.1641042828559875e-01</leafValues></_>
        <_>
          <internalNodes>
            0 -1 351 -1513486336 201327488 -1956297355 879617100
            -1547069437 42225714 -1877235596 83150101</internalNodes>
          <leafValues>
            -5.5022031068801880e-01 8.5462920367717743e-02</leafValues></_>
        <_>
          <internalNodes>
            0 -1 217 -864957761 -8913777 -179831291 -1152402562
            -746607733 -223197941 -1718770806 -270550534</internalNodes>
          <leafValues>
            -1.0604818910360336e-01 4.3177506327629089e-01</leafValues></_>
        <_>
          <internalNodes>
            0 -1 824 228313251 255444134 -994157439 -717646318
            1259663306 763327804 1243886256 246248907</internalNodes>
          <leafValues>
            -1.9502207636833191e-01 2.1156536042690277e-01</leafValues></_>
        <_>
          <internalNodes>
            0 -1 749 -2138350959 -1374750720 621279968 1851815176
            -775247305 -1638979397 1710145972 -1936141104</internalNodes>
          <leafValues>
            -3.1330475211143494e-01 1.2315379828214645e-01</leafValues></_>
        <_>
          <internalNodes>
            0 -1 592 3443452 2131787904 -786689831 989901208 -1329987687
            973636231 555187807 -2074472127</internalNodes>
          <leafValues>
            -2.7124261856079102e-01 1.4574113488197327e-01</leafValues></_>
        <_>
          <internalNodes>
            0 -1 493 -240149849 1489967635 248005564 1488843722
            -663054669 177979082 1063886264 -1116606850</internalNodes>
          <leafValues>
            -1.6092482209205627e-01 2.4031771719455719e-01</leafValues></_>
        <_>
          <internalNodes>
            0 -1 743 422753473 737714308 -1034436562 -1339001716
            949170612 -1931410664 190020190 1227726898</internalNodes>
          <leafValues>
            -2.5167891383171082e-01 1.4972633123397827e-01</leafValues></_>
        <_>
          <internalNodes>
            0 -1 527 683673600 2051415051 -1958719305 855946093
            109920972 -1226857535 67698348 1216353314</internalNodes>
          <leafValues>
            -4.1959059238433838e-01 9.1966919600963593e-02</leafValues></_>
        <_>
          <internalNodes>
            0 -1 93 -497784282 19018765 -1911797760 68199476 1392531836
            -1972027062 -205305066 1411675667</internalNodes>
          <leafValues>
            -3.6651763319969177e-01 1.0593230277299881e-01</leafValues></_></weakClassifiers></_>
    <!-- stage 9 -->
    <_>
      <maxWeakCount>52</maxWeakCount>
      <stageThreshold>-1.2461954355239868e+00</stageThreshold>
      <weakClassifiers>
        <_>
          <internalNodes>
            0 -1 191 555984805 -1808688633 -1869261615 298291777
            -1606972533 -790684686 -913601583 -1285323839</internalNodes>
          <leafValues>
            -2.3791103065013885e-01 1.4249685406684875e-01</leafValues></_>
        <_>
          <internalNodes>
            0 -1 717 295632816 -1688542800 590495440 400347007 769010152
            -1433363317 80835408 500789448</internalNodes>
          <leafValues>
            -2.4549262225627899e-01 1.4018791913986206e-01</leafValues></_>
        <_>
          <internalNodes>
            0 -1 758 1504313194 -1546695225 -259864321 105729235
            -251857048 -1007009178 -736834370 212594350</internalNodes>
          <leafValues>
            -2.2090139985084534e-01 1.5709698200225830e-01</leafValues></_>
        <_>
          <internalNodes>
            0 -1 703 -1356595550 575586026 -1009044688 -200623884
            322149492 170633 1659908820 -721424144</internalNodes>
          <leafValues>
            -2.2086140513420105e-01 1.6968445479869843e-01</leafValues></_>
        <_>
          <internalNodes>
            0 -1 71 1785391820 1099710598 1121085602 843240494
            1064453901 1147159114 1362358470 1364673479</internalNodes>
          <leafValues>
            -3.1444123387336731e-01 9.7590707242488861e-02</leafValues></_>
        <_>
          <internalNodes>
            0 -1 143 -1333260160 -5007451 -805256732 -445261889
            1362795258 1337714177 1899326347 85883659</internalNodes>
          <leafValues>
            -2.3937560617923737e-01 1.4746984839439392e-01</leafValues></_>
        <_>
          <internalNodes>
            0 -1 603 2016151817 2145359374 2228946 1931135146 -32787403
            879894674 846112655 142371978</internalNodes>
          <leafValues>
            -3.3411517739295959e-01 6.9020427763462067e-02</leafValues></_>
        <_>
          <internalNodes>
            0 -1 524 -453150121 -962396468 2122284447 -121035667
            -949252332 -377457799 -588671331 -596591328</internalNodes>
          <leafValues>
            -1.6932509839534760e-01 1.9384896755218506e-01</leafValues></_>
        <_>
          <internalNodes>
            0 -1 310 370168115 -572525099 777458043 1437030031
            1252955327 -1886088549 319168866 1057032252</internalNodes>
          <leafValues>
            -1.9159837067127228e-01 1.8125727772712708e-01</leafValues></_>
        <_>
          <internalNodes>
            0 -1 799 536327097 -406463687 1510513392 -577672504
            684367274 1683495214 49703600 1306000921</internalNodes>
          <leafValues>
            -1.9576489925384521e-01 1.6719625890254974e-01</leafValues></_>
        <_>
          <internalNodes>
            0 -1 380 -17920291 -1567563005 -458144672 -265263876
            -1091628528 72810578 -640511296 -1301624066</internalNodes>
          <leafValues>
            -2.0368792116641998e-01 1.6132423281669617e-01</leafValues></_>
        <_>
          <internalNodes>
            0 -1 117 138546744 -509185068 2113947065 -95395120 125974330
            847468380 2122324702 1010855551</internalNodes>
          <leafValues>
            -2.7304795384407043e-01 1.3507096469402313e-01</leafValues></_>
        <_>
          <internalNodes>
            0 -1 740 -16921901 -1079183314 1424716859 -1243002868
            153872307 -905775965 1463731931 -1613243081</internalNodes>
          <leafValues>
            -1.6038788855075836e-01 2.4862438440322876e-01</leafValues></_>
        <_>
          <internalNodes>
            0 -1 601 -120733036 910071079 2022856426 15677574 272593534
            372007627 -789333846 -1006141913</internalNodes>
          <leafValues>
            -2.1599613130092621e-01 1.7369586229324341e-01</leafValues></_>
        <_>
          <internalNodes>
            0 -1 361 -1877529483 -1671017170 -1260933891 -294333650
            -925228943 -1640265680 14977488 -1670333344</internalNodes>
          <leafValues>
            -2.7385601401329041e-01 1.1130847036838531e-01</leafValues></_>
        <_>
          <internalNodes>
            0 -1 450 -1901330397 -923056906 931057355 -612403610
            -570606422 -1177436056 -740730285 -400703713</internalNodes>
          <leafValues>
            -1.4889620244503021e-01 2.2235853970050812e-01</leafValues></_>
        <_>
          <internalNodes>
            0 -1 136 1427486719 -674549761 -1856280801 1574811007
            1514121211 -271452737 1458667309 937111279</internalNodes>
          <leafValues>
            -1.4853298664093018e-01 2.4115525186061859e-01</leafValues></_>
        <_>
          <internalNodes>
            0 -1 327 -1691721901 -1758487361 -1615252658 -1251085792
            -2127057070 -809788079 -295578232 -588738517</internalNodes>
          <leafValues>
            -1.7430230975151062e-01 2.0161297917366028e-01</leafValues></_>
        <_>
          <internalNodes>
            0 -1 526 -1535093647 -78218027 1324256657 1429580404
            -1873484619 -1351098409 548462555 -1893037957</internalNodes>
          <leafValues>
            -1.1012160032987595e-01 2.8740903735160828e-01</leafValues></_>
        <_>
          <internalNodes>
            0 -1 145 -1147995213 -339270478 474895250 1472416418
            1080635595 1955487952 34306320 -302000035</internalNodes>
          <leafValues>
            -1.7529688775539398e-01 1.9162903726100922e-01</leafValues></_>
        <_>
          <internalNodes>
            0 -1 421 2134105950 1411480885 -1221397186 -544014426
            1605105316 -7674852 -1740288514 -1719666929</internalNodes>
          <leafValues>
            -1.3878518342971802e-01 2.5106081366539001e-01</leafValues></_>
        <_>
          <internalNodes>
            0 -1 536 -205521031 905085643 759369616 -939591158
            1766846411 1546027008 175615461 -360899100</internalNodes>
          <leafValues>
            -2.0558331906795502e-01 1.8000380694866180e-01</leafValues></_>
        <_>
          <internalNodes>
            0 -1 271 1492646627 -1626259739 933723929 1199167831
            -1841972591 -1451368308 658347130 -555752445</internalNodes>
          <leafValues>
            -1.3128478825092316e-01 2.7479159832000732e-01</leafValues></_>
        <_>
          <internalNodes>
            0 -1 96 -457420682 -58815686 -129084550 -1609939454
            -225765457 -1204233807 -62557797 -382155654</internalNodes>
          <leafValues>
            -1.7886810004711151e-01 2.0780137181282043e-01</leafValues></_>
        <_>
          <internalNodes>
            0 -1 559 -500636019 -2113238880 121718765 400986578
            -1715800256 -1997489723 1671058505 -2142650299</internalNodes>
          <leafValues>
            -2.1575035154819489e-01 1.8128503859043121e-01</leafValues></_>
        <_>
          <internalNodes>
            0 -1 233 54805510 332532558 1589650 857396559 -1058080640
            822103941 1284702585 860897477</internalNodes>
          <leafValues>
            -3.2821097970008850e-01 1.0026494413614273e-01</leafValues></_>
        <_>
          <internalNodes>
            0 -1 833 1610202075 -1061553741 -184554524 -1201182976
            -682238053 -414286107 1130616456 26843882</internalNodes>
          <leafValues>
            -1.5647572278976440e-01 2.3141345381736755e-01</leafValues></_>
        <_>
          <internalNodes>
            0 -1 750 176819204 706777387 -1768368011 1578682288
            170238059 178778261 1270285105 -1661803468</internalNodes>
          <leafValues>
            -3.1622266769409180e-01 1.0921960324048996e-01</leafValues></_>
        <_>
          <internalNodes>
            0 -1 773 2065611775 -418454614 1291444561 1349317750
            208702684 -1421549608 288414938 1226953114</internalNodes>
          <leafValues>
            -1.6745418310165405e-01 2.1624192595481873e-01</leafValues></_>
        <_>
          <internalNodes>
            0 -1 160 432730116 320067983 1879491152 1107661057 526041736
            271707768 1370555326 1979945783</internalNodes>
          <leafValues>
            -2.1790941059589386e-01 1.5989628434181213e-01</leafValues></_>
        <_>
          <internalNodes>
            0 -1 839 23341047 1355032283 809504846 1225627628 75628427
            1355167881 -580287641 1166054519</internalNodes>
          <leafValues>
            -2.4983468651771545e-01 1.5120737254619598e-01</leafValues></_>
        <_>
          <internalNodes>
            0 -1 383 -2130574294 570463378 1360019423 -598183465
            1548594164 1756201584 424180004 1346835926</internalNodes>
          <leafValues>
            -3.7220340967178345e-01 8.0848291516304016e-02</leafValues></_>
        <_>
          <internalNodes>
            0 -1 585 -4980817 -105804361 935207949 -115225345
            -1031819546 -772562951 -340869825 -1347699745</internalNodes>
          <leafValues>
            -8.7870970368385315e-02 4.0884727239608765e-01</leafValues></_>
        <_>
          <internalNodes>
            0 -1 325 -205888065 -1254908633 -1711538569 -39191812
            -1930292829 -1991129891 -889618181 -563489908</internalNodes>
          <leafValues>
            -1.3006784021854401e-01 2.9687213897705078e-01</leafValues></_>
        <_>
          <internalNodes>
            0 -1 677 -1903180015 348190718 -787235948 -554004866
            -1850629518 -1698012519 1827186940 -1870702860</internalNodes>
          <leafValues>
            -1.9315598905086517e-01 1.9535867869853973e-01</leafValues></_>
        <_>
          <internalNodes>
            0 -1 485 2129676526 -1678217748 -700720438 1542842532
            -1375342561 113311044 -1144596890 -783835929</internalNodes>
          <leafValues>
            -1.8610985577106476e-01 2.0296290516853333e-01</leafValues></_>
        <_>
          <internalNodes>
            0 -1 218 1392988019 2072193884 302436447 494689308 50449970
            -912275688 589320273 352342100</internalNodes>
          <leafValues>
            -2.7123543620109558e-01 1.4115582406520844e-01</leafValues></_>
        <_>
          <internalNodes>
            0 -1 138 -1610422960 -484294926 771637173 500034351
            -1516849238 -1205018635 1818171039 -1346693347</internalNodes>
          <leafValues>
            -1.6981975734233856e-01 2.4024526774883270e-01</leafValues></_>
        <_>
          <internalNodes>
            0 -1 376 1636773022 587038906 -2095648730 94356614
            -524266690 5692178 -1277984770 218199366</internalNodes>
          <leafValues>
            -2.4205230176448822e-01 1.6048407554626465e-01</leafValues></_>
        <_>
          <internalNodes>
            0 -1 625 -1173445072 74318220 270549601 -2117962669
